{
  "name": "model_value_edge_v1_residual_lgbm",
  "tree_info": [
    {
      "tree_index": 0,
      "num_leaves": 8,
      "num_cat": 0,
      "shrinkage": 0.03,
      "tree_structure": {
        "split_index": 0,
        "split_feature": 4,
        "split_gain": 43.24660110473633,
        "threshold": -3520.9999999999995,
        "decision_type": "<=",
        "default_left": true,
        "missing_type": "None",
        "internal_value": 8.16897e-05,
        "internal_weight": 1590,
        "internal_count": 1590,
        "left_child": {
          "split_index": 4,
          "split_feature": 1,
          "split_gain": 3.015199899673462,
          "threshold": 0.3350000000000001,
          "decision_type": "<=",
          "default_left": true,
          "missing_type": "None",
          "internal_value": -0.00778503,
          "internal_weight": 449,
          "internal_count": 449,
          "left_child": {
            "leaf_index": 0,
            "leaf_value": -0.004248039190675698,
            "leaf_weight": 151,
            "leaf_count": 151
          },
          "right_child": {
            "leaf_index": 5,
            "leaf_value": -0.00953699986487627,
            "leaf_weight": 298,
            "leaf_count": 298
          }
        },
        "right_child": {
          "split_index": 1,
          "split_feature": 4,
          "split_gain": 18.465599060058594,
          "threshold": 3521.0000000000005,
          "decision_type": "<=",
          "default_left": true,
          "missing_type": "None",
          "internal_value": 0.00318556,
          "internal_weight": 1141,
          "internal_count": 1141,
          "left_child": {
            "split_index": 2,
            "split_feature": 0,
            "split_gain": 17.228700637817383,
            "threshold": 0.49750000000000005,
            "decision_type": "<=",
            "default_left": true,
            "missing_type": "None",
            "internal_value": 0.000151709,
            "internal_weight": 700,
            "internal_count": 700,
            "left_child": {
              "split_index": 5,
              "split_feature": 2,
              "split_gain": 2.8320200443267822,
              "threshold": 0.09500000000000004,
              "decision_type": "<=",
              "default_left": true,
              "missing_type": "None",
              "internal_value": 0.00487114,
              "internal_weight": 348,
              "internal_count": 348,
              "left_child": {
                "leaf_index": 1,
                "leaf_value": 0.0031327380204484575,
                "leaf_weight": 250,
                "leaf_count": 250
              },
              "right_child": {
                "leaf_index": 6,
                "leaf_value": 0.009154499825835228,
                "leaf_weight": 98,
                "leaf_count": 98
              }
            },
            "right_child": {
              "split_index": 3,
              "split_feature": 2,
              "split_gain": 3.4490299224853516,
              "threshold": 0.09000000000000007,
              "decision_type": "<=",
              "default_left": true,
              "missing_type": "None",
              "internal_value": -0.00451525,
              "internal_weight": 352,
              "internal_count": 352,
              "left_child": {
                "leaf_index": 3,
                "leaf_value": -0.0026581394672393795,
                "leaf_weight": 256,
                "leaf_count": 256
              },
              "right_child": {
                "leaf_index": 4,
                "leaf_value": -0.009312244720604953,
                "leaf_weight": 96,
                "leaf_count": 96
              }
            }
          },
          "right_child": {
            "split_index": 6,
            "split_feature": 0,
            "split_gain": 2.716789960861206,
            "threshold": 0.7275000000000001,
            "decision_type": "<=",
            "default_left": true,
            "missing_type": "None",
            "internal_value": 0.00797878,
            "internal_weight": 441,
            "internal_count": 441,
            "left_child": {
              "leaf_index": 2,
              "leaf_value": 0.009665816182992896,
              "leaf_weight": 292,
              "leaf_count": 292
            },
            "right_child": {
              "leaf_index": 7,
              "leaf_value": 0.00458841058246742,
              "leaf_weight": 149,
              "leaf_count": 149
            }
          }
        }
      }
    },
    {
      "tree_index": 1,
      "num_leaves": 10,
      "num_cat": 0,
      "shrinkage": 0.03,
      "tree_structure": {
        "split_index": 0,
        "split_feature": 6,
        "split_gain": 35.437801361083984,
        "threshold": -103.50295847486016,
        "decision_type": "<=",
        "default_left": true,
        "missing_type": "None",
        "internal_value": 9.22592e-06,
        "internal_weight": 1589,
        "internal_count": 1589,
        "left_child": {
          "split_index": 4,
          "split_feature": 3,
          "split_gain": 3.51311993598938,
          "threshold": 2143.0000000000005,
          "decision_type": "<=",
          "default_left": true,
          "missing_type": "None",
          "internal_value": -0.00626546,
          "internal_weight": 535,
          "internal_count": 535,
          "left_child": {
            "split_index": 8,
            "split_feature": 6,
            "split_gain": 1.2771199941635132,
            "threshold": -276.6571049947919,
            "decision_type": "<=",
            "default_left": true,
            "missing_type": "None",
            "internal_value": -0.00326709,
            "internal_weight": 216,
            "internal_count": 216,
            "left_child": {
              "leaf_index": 0,
              "leaf_value": -0.005401665565486137,
              "leaf_weight": 115,
              "leaf_count": 115
            },
            "right_child": {
              "leaf_index": 9,
              "leaf_value": -0.0007789487051732332,
              "leaf_weight": 101,
              "leaf_count": 101
            }
          },
          "right_child": {
            "split_index": 6,
            "split_feature": 0,
            "split_gain": 1.5525699853897095,
            "threshold": 0.2775000000000001,
            "decision_type": "<=",
            "default_left": true,
            "missing_type": "None",
            "internal_value": -0.0082627,
            "internal_weight": 319,
            "internal_count": 319,
            "left_child": {
              "leaf_index": 5,
              "leaf_value": -0.004506962428610009,
              "leaf_weight": 81,
              "leaf_count": 81
            },
            "right_child": {
              "leaf_index": 7,
              "leaf_value": -0.009492704346776008,
              "leaf_weight": 238,
              "leaf_count": 238
            }
          }
        },
        "right_child": {
          "split_index": 1,
          "split_feature": 3,
          "split_gain": 13.06820011138916,
          "threshold": 2101.0000000000005,
          "decision_type": "<=",
          "default_left": true,
          "missing_type": "None",
          "internal_value": 0.00320003,
          "internal_weight": 1054,
          "internal_count": 1054,
          "left_child": {
            "split_index": 2,
            "split_feature": 0,
            "split_gain": 8.151220321655273,
            "threshold": 0.43250000000000005,
            "decision_type": "<=",
            "default_left": true,
            "missing_type": "None",
            "internal_value": 0.000962059,
            "internal_weight": 729,
            "internal_count": 729,
            "left_child": {
              "split_index": 7,
              "split_feature": 6,
              "split_gain": 1.3042700290679932,
              "threshold": -1.629253102494803,
              "decision_type": "<=",
              "default_left": true,
              "missing_type": "None",
              "internal_value": 0.00590308,
              "internal_weight": 211,
              "internal_count": 211,
              "left_child": {
                "leaf_index": 1,
                "leaf_value": 0.00786888614296913,
                "leaf_weight": 124,
                "leaf_count": 124
              },
              "right_child": {
                "leaf_index": 8,
                "leaf_value": 0.0029873687363742444,
                "leaf_weight": 87,
                "leaf_count": 87
              }
            },
            "right_child": {
              "split_index": 3,
              "split_feature": 6,
              "split_gain": 7.149990081787109,
              "threshold": 194.3572460279249,
              "decision_type": "<=",
              "default_left": true,
              "missing_type": "None",
              "internal_value": -0.00106556,
              "internal_weight": 518,
              "internal_count": 518,
              "left_child": {
                "leaf_index": 3,
                "leaf_value": -0.003197774492849515,
                "leaf_weight": 379,
                "leaf_count": 379
              },
              "right_child": {
                "leaf_index": 4,
                "leaf_value": 0.004711077107869564,
                "leaf_weight": 139,
                "leaf_count": 139
              }
            }
          },
          "right_child": {
            "split_index": 5,
            "split_feature": 0,
            "split_gain": 1.6511600017547607,
            "threshold": 0.7425,
            "decision_type": "<=",
            "default_left": true,
            "missing_type": "None",
            "internal_value": 0.00818338,
            "internal_weight": 325,
            "internal_count": 325,
            "left_child": {
              "leaf_index": 2,
              "leaf_value": 0.009411857815889211,
              "leaf_weight": 245,
              "leaf_count": 245
            },
            "right_child": {
              "leaf_index": 6,
              "leaf_value": 0.004283387954006108,
              "leaf_weight": 80,
              "leaf_count": 80
            }
          }
        }
      }
    },
    {
      "tree_index": 2,
      "num_leaves": 10,
      "num_cat": 0,
      "shrinkage": 0.03,
      "tree_structure": {
        "split_index": 0,
        "split_feature": 4,
        "split_gain": 39.11180114746094,
        "threshold": -3520.9999999999995,
        "decision_type": "<=",
        "default_left": true,
        "missing_type": "None",
        "internal_value": -2.2265600000000002e-05,
        "internal_weight": 1601,
        "internal_count": 1601,
        "left_child": {
          "split_index": 4,
          "split_feature": 1,
          "split_gain": 2.8632900714874268,
          "threshold": 0.25500000000000006,
          "decision_type": "<=",
          "default_left": true,
          "missing_type": "None",
          "internal_value": -0.00745611,
          "internal_weight": 454,
          "internal_count": 454,
          "left_child": {
            "leaf_index": 0,
            "leaf_value": -0.0027502698059549036,
            "leaf_weight": 95,
            "leaf_count": 95
          },
          "right_child": {
            "split_index": 7,
            "split_feature": 0,
            "split_gain": 0.3153809905052185,
            "threshold": 0.31750000000000006,
            "decision_type": "<=",
            "default_left": true,
            "missing_type": "None",
            "internal_value": -0.00867925,
            "internal_weight": 359,
            "internal_count": 359,
            "left_child": {
              "leaf_index": 5,
              "leaf_value": -0.006699233310805125,
              "leaf_weight": 86,
              "leaf_count": 86
            },
            "right_child": {
              "leaf_index": 8,
              "leaf_value": -0.009249738689986142,
              "leaf_weight": 273,
              "leaf_count": 273
            }
          }
        },
        "right_child": {
          "split_index": 1,
          "split_feature": 4,
          "split_gain": 16.667699813842773,
          "threshold": 3521.0000000000005,
          "decision_type": "<=",
          "default_left": true,
          "missing_type": "None",
          "internal_value": 0.00292802,
          "internal_weight": 1147,
          "internal_count": 1147,
          "left_child": {
            "split_index": 2,
            "split_feature": 0,
            "split_gain": 15.338199615478516,
            "threshold": 0.49750000000000005,
            "decision_type": "<=",
            "default_left": true,
            "missing_type": "None",
            "internal_value": 2.88128e-05,
            "internal_weight": 699,
            "internal_count": 699,
            "left_child": {
              "split_index": 5,
              "split_feature": 2,
              "split_gain": 2.7658801078796387,
              "threshold": 0.09500000000000004,
              "decision_type": "<=",
              "default_left": true,
              "missing_type": "None",
              "internal_value": 0.00446634,
              "internal_weight": 349,
              "internal_count": 349,
              "left_child": {
                "leaf_index": 1,
                "leaf_value": 0.0027700061198529294,
                "leaf_weight": 252,
                "leaf_count": 252
              },
              "right_child": {
                "leaf_index": 6,
                "leaf_value": 0.008728324481935211,
                "leaf_weight": 97,
                "leaf_count": 97
              }
            },
            "right_child": {
              "split_index": 3,
              "split_feature": 2,
              "split_gain": 2.876569986343384,
              "threshold": 0.09000000000000007,
              "decision_type": "<=",
              "default_left": true,
              "missing_type": "None",
              "internal_value": -0.00439627,
              "internal_weight": 350,
              "internal_count": 350,
              "left_child": {
                "leaf_index": 3,
                "leaf_value": -0.002745217997794864,
                "leaf_weight": 259,
                "leaf_count": 259
              },
              "right_child": {
                "leaf_index": 4,
                "leaf_value": -0.00893533315389387,
                "leaf_weight": 91,
                "leaf_count": 91
              }
            }
          },
          "right_child": {
            "split_index": 6,
            "split_feature": 0,
            "split_gain": 2.4860000610351562,
            "threshold": 0.7975000000000002,
            "decision_type": "<=",
            "default_left": true,
            "missing_type": "None",
            "internal_value": 0.00743133,
            "internal_weight": 448,
            "internal_count": 448,
            "left_child": {
              "split_index": 8,
              "split_feature": 4,
              "split_gain": 0.16664700210094452,
              "threshold": 8403.000000000002,
              "decision_type": "<=",
              "default_left": true,
              "missing_type": "None",
              "internal_value": 0.00861309,
              "internal_weight": 350,
              "internal_count": 350,
              "left_child": {
                "leaf_index": 2,
                "leaf_value": 0.006970560703087937,
                "leaf_weight": 86,
                "leaf_count": 86
              },
              "right_child": {
                "leaf_index": 9,
                "leaf_value": 0.009091722982046298,
                "leaf_weight": 264,
                "leaf_count": 264
              }
            },
            "right_child": {
              "leaf_index": 7,
              "leaf_value": 0.00312289629522711,
              "leaf_weight": 98,
              "leaf_count": 98
            }
          }
        }
      }
    },
    {
      "tree_index": 3,
      "num_leaves": 9,
      "num_cat": 0,
      "shrinkage": 0.03,
      "tree_structure": {
        "split_index": 0,
        "split_feature": 4,
        "split_gain": 35.96580123901367,
        "threshold": -3520.9999999999995,
        "decision_type": "<=",
        "default_left": true,
        "missing_type": "None",
        "internal_value": 9.117660000000001e-05,
        "internal_weight": 1598,
        "internal_count": 1598,
        "left_child": {
          "split_index": 4,
          "split_feature": 1,
          "split_gain": 2.686530113220215,
          "threshold": 0.3350000000000001,
          "decision_type": "<=",
          "default_left": true,
          "missing_type": "None",
          "internal_value": -0.00712331,
          "internal_weight": 446,
          "internal_count": 446,
          "left_child": {
            "leaf_index": 0,
            "leaf_value": -0.0037119991370048876,
            "leaf_weight": 146,
            "leaf_count": 146
          },
          "right_child": {
            "leaf_index": 5,
            "leaf_value": -0.008747909929578667,
            "leaf_weight": 300,
            "leaf_count": 300
          }
        },
        "right_child": {
          "split_index": 1,
          "split_feature": 4,
          "split_gain": 15.516400337219238,
          "threshold": 3521.0000000000005,
          "decision_type": "<=",
          "default_left": true,
          "missing_type": "None",
          "internal_value": 0.00289179,
          "internal_weight": 1152,
          "internal_count": 1152,
          "left_child": {
            "split_index": 2,
            "split_feature": 1,
            "split_gain": 13.202400207519531,
            "threshold": 0.5350000000000001,
            "decision_type": "<=",
            "default_left": true,
            "missing_type": "None",
            "internal_value": 4.92748e-05,
            "internal_weight": 692,
            "internal_count": 692,
            "left_child": {
              "split_index": 6,
              "split_feature": 3,
              "split_gain": 1.9112800359725952,
              "threshold": 1301.0000000000002,
              "decision_type": "<=",
              "default_left": true,
              "missing_type": "None",
              "internal_value": 0.00420479,
              "internal_weight": 344,
              "internal_count": 344,
              "left_child": {
                "leaf_index": 1,
                "leaf_value": 0.005820331721841501,
                "leaf_weight": 225,
                "leaf_count": 225
              },
              "right_child": {
                "leaf_index": 7,
                "leaf_value": 0.001104467186060819,
                "leaf_weight": 119,
                "leaf_count": 119
              }
            },
            "right_child": {
              "split_index": 3,
              "split_feature": 4,
              "split_gain": 2.922100067138672,
              "threshold": 1621.5000000000002,
              "decision_type": "<=",
              "default_left": true,
              "missing_type": "None",
              "internal_value": -0.00405903,
              "internal_weight": 348,
              "internal_count": 348,
              "left_child": {
                "leaf_index": 3,
                "leaf_value": -0.005551656653483708,
                "leaf_weight": 268,
                "leaf_count": 268
              },
              "right_child": {
                "leaf_index": 4,
                "leaf_value": 0.0009547335527292111,
                "leaf_weight": 80,
                "leaf_count": 80
              }
            }
          },
          "right_child": {
            "split_index": 5,
            "split_feature": 1,
            "split_gain": 2.0083799362182617,
            "threshold": 0.8750000000000001,
            "decision_type": "<=",
            "default_left": true,
            "missing_type": "None",
            "internal_value": 0.0071492,
            "internal_weight": 460,
            "internal_count": 460,
            "left_child": {
              "split_index": 7,
              "split_feature": 4,
              "split_gain": 0.2670629918575287,
              "threshold": 7414.000000000001,
              "decision_type": "<=",
              "default_left": true,
              "missing_type": "None",
              "internal_value": 0.00832995,
              "internal_weight": 340,
              "internal_count": 340,
              "left_child": {
                "leaf_index": 2,
                "leaf_value": 0.006421855478042579,
                "leaf_weight": 81,
                "leaf_count": 81
              },
              "right_child": {
                "leaf_index": 8,
                "leaf_value": 0.008872911416251085,
                "leaf_weight": 259,
                "leaf_count": 259
              }
            },
            "right_child": {
              "leaf_index": 6,
              "leaf_value": 0.0037220211600365698,
              "leaf_weight": 120,
              "leaf_count": 120
            }
          }
        }
      }
    },
    {
      "tree_index": 4,
      "num_leaves": 9,
      "num_cat": 0,
      "shrinkage": 0.03,
      "tree_structure": {
        "split_index": 0,
        "split_feature": 4,
        "split_gain": 34.35960006713867,
        "threshold": -3520.9999999999995,
        "decision_type": "<=",
        "default_left": true,
        "missing_type": "None",
        "internal_value": -8.90902e-06,
        "internal_weight": 1594,
        "internal_count": 1594,
        "left_child": {
          "split_index": 3,
          "split_feature": 1,
          "split_gain": 2.685920000076294,
          "threshold": 0.3350000000000001,
          "decision_type": "<=",
          "default_left": true,
          "missing_type": "None",
          "internal_value": -0.0069919,
          "internal_weight": 452,
          "internal_count": 452,
          "left_child": {
            "leaf_index": 0,
            "leaf_value": -0.003573552689238174,
            "leaf_weight": 146,
            "leaf_count": 146
          },
          "right_child": {
            "leaf_index": 4,
            "leaf_value": -0.00858908025426911,
            "leaf_weight": 306,
            "leaf_count": 306
          }
        },
        "right_child": {
          "split_index": 1,
          "split_feature": 4,
          "split_gain": 14.255000114440918,
          "threshold": 3521.0000000000005,
          "decision_type": "<=",
          "default_left": true,
          "missing_type": "None",
          "internal_value": 0.00276233,
          "internal_weight": 1142,
          "internal_count": 1142,
          "left_child": {
            "split_index": 2,
            "split_feature": 0,
            "split_gain": 14.044099807739258,
            "threshold": 0.5025000000000001,
            "decision_type": "<=",
            "default_left": true,
            "missing_type": "None",
            "internal_value": 6.55239e-05,
            "internal_weight": 694,
            "internal_count": 694,
            "left_child": {
              "split_index": 5,
              "split_feature": 1,
              "split_gain": 2.1728200912475586,
              "threshold": 0.4050000000000001,
              "decision_type": "<=",
              "default_left": true,
              "missing_type": "None",
              "internal_value": 0.00433295,
              "internal_weight": 346,
              "internal_count": 346,
              "left_child": {
                "leaf_index": 1,
                "leaf_value": 0.0005087055898073948,
                "leaf_weight": 97,
                "leaf_count": 97
              },
              "right_child": {
                "leaf_index": 6,
                "leaf_value": 0.005806792995844229,
                "leaf_weight": 249,
                "leaf_count": 249
              }
            },
            "right_child": {
              "split_index": 6,
              "split_feature": 3,
              "split_gain": 1.9468200206756592,
              "threshold": 1456.5000000000002,
              "decision_type": "<=",
              "default_left": true,
              "missing_type": "None",
              "internal_value": -0.00417789,
              "internal_weight": 348,
              "internal_count": 348,
              "left_child": {
                "leaf_index": 3,
                "leaf_value": -0.005504248311966082,
                "leaf_weight": 257,
                "leaf_count": 257
              },
              "right_child": {
                "leaf_index": 7,
                "leaf_value": -0.00039421438209472163,
                "leaf_weight": 91,
                "leaf_count": 91
              }
            }
          },
          "right_child": {
            "split_index": 4,
            "split_feature": 0,
            "split_gain": 2.2376201152801514,
            "threshold": 0.7975000000000002,
            "decision_type": "<=",
            "default_left": true,
            "missing_type": "None",
            "internal_value": 0.00692111,
            "internal_weight": 448,
            "internal_count": 448,
            "left_child": {
              "split_index": 7,
              "split_feature": 0,
              "split_gain": 0.34409698843955994,
              "threshold": 0.6825000000000001,
              "decision_type": "<=",
              "default_left": true,
              "missing_type": "None",
              "internal_value": 0.00805665,
              "internal_weight": 348,
              "internal_count": 348,
              "left_child": {
                "leaf_index": 2,
                "leaf_value": 0.008635927627780544,
                "leaf_weight": 266,
                "leaf_count": 266
              },
              "right_child": {
                "leaf_index": 8,
                "leaf_value": 0.006016645559242793,
                "leaf_weight": 82,
                "leaf_count": 82
              }
            },
            "right_child": {
              "leaf_index": 5,
              "leaf_value": 0.0028889435233876984,
              "leaf_weight": 100,
              "leaf_count": 100
            }
          }
        }
      }
    },
    {
      "tree_index": 5,
      "num_leaves": 9,
      "num_cat": 0,
      "shrinkage": 0.03,
      "tree_structure": {
        "split_index": 0,
        "split_feature": 4,
        "split_gain": 32.58470153808594,
        "threshold": -3520.9999999999995,
        "decision_type": "<=",
        "default_left": true,
        "missing_type": "None",
        "internal_value": -2.33434e-06,
        "internal_weight": 1615,
        "internal_count": 1615,
        "left_child": {
          "split_index": 5,
          "split_feature": 1,
          "split_gain": 2.402440071105957,
          "threshold": 0.3350000000000001,
          "decision_type": "<=",
          "default_left": true,
          "missing_type": "None",
          "internal_value": -0.00677856,
          "internal_weight": 456,
          "internal_count": 456,
          "left_child": {
            "leaf_index": 0,
            "leaf_value": -0.0035670596115291117,
            "leaf_weight": 148,
            "leaf_count": 148
          },
          "right_child": {
            "leaf_index": 6,
            "leaf_value": -0.008288780005228135,
            "leaf_weight": 308,
            "leaf_count": 308
          }
        },
        "right_child": {
          "split_index": 1,
          "split_feature": 4,
          "split_gain": 13.636199951171875,
          "threshold": 3521.0000000000005,
          "decision_type": "<=",
          "default_left": true,
          "missing_type": "None",
          "internal_value": 0.00267081,
          "internal_weight": 1159,
          "internal_count": 1159,
          "left_child": {
            "split_index": 2,
            "split_feature": 0,
            "split_gain": 12.196399688720703,
            "threshold": 0.5025000000000001,
            "decision_type": "<=",
            "default_left": true,
            "missing_type": "None",
            "internal_value": 6.99443e-05,
            "internal_weight": 708,
            "internal_count": 708,
            "left_child": {
              "split_index": 3,
              "split_feature": 2,
              "split_gain": 2.571199893951416,
              "threshold": 0.09500000000000004,
              "decision_type": "<=",
              "default_left": true,
              "missing_type": "None",
              "internal_value": 0.00395231,
              "internal_weight": 358,
              "internal_count": 358,
              "left_child": {
                "leaf_index": 1,
                "leaf_value": 0.002401408701014698,
                "leaf_weight": 264,
                "leaf_count": 264
              },
              "right_child": {
                "leaf_index": 4,
                "leaf_value": 0.00816724951379001,
                "leaf_weight": 94,
                "leaf_count": 94
              }
            },
            "right_child": {
              "split_index": 4,
              "split_feature": 2,
              "split_gain": 2.5518798828125,
              "threshold": 0.09000000000000007,
              "decision_type": "<=",
              "default_left": true,
              "missing_type": "None",
              "internal_value": -0.00390105,
              "internal_weight": 350,
              "internal_count": 350,
              "left_child": {
                "leaf_index": 3,
                "leaf_value": -0.00234858145830275,
                "leaf_weight": 259,
                "leaf_count": 259
              },
              "right_child": {
                "leaf_index": 5,
                "leaf_value": -0.008174090683460235,
                "leaf_weight": 91,
                "leaf_count": 91
              }
            }
          },
          "right_child": {
            "split_index": 6,
            "split_feature": 0,
            "split_gain": 2.1364400386810303,
            "threshold": 0.7975000000000002,
            "decision_type": "<=",
            "default_left": true,
            "missing_type": "None",
            "internal_value": 0.00673542,
            "internal_weight": 451,
            "internal_count": 451,
            "left_child": {
              "split_index": 7,
              "split_feature": 0,
              "split_gain": 0.3210740089416504,
              "threshold": 0.6825000000000001,
              "decision_type": "<=",
              "default_left": true,
              "missing_type": "None",
              "internal_value": 0.00784364,
              "internal_weight": 350,
              "internal_count": 350,
              "left_child": {
                "leaf_index": 2,
                "leaf_value": 0.0083958714661563,
                "leaf_weight": 269,
                "leaf_count": 269
              },
              "right_child": {
                "leaf_index": 8,
                "leaf_value": 0.005851583032004804,
                "leaf_weight": 81,
                "leaf_count": 81
              }
            },
            "right_child": {
              "leaf_index": 7,
              "leaf_value": 0.002817311492902272,
              "leaf_weight": 101,
              "leaf_count": 101
            }
          }
        }
      }
    },
    {
      "tree_index": 6,
      "num_leaves": 10,
      "num_cat": 0,
      "shrinkage": 0.03,
      "tree_structure": {
        "split_index": 0,
        "split_feature": 4,
        "split_gain": 29.9552001953125,
        "threshold": -3520.9999999999995,
        "decision_type": "<=",
        "default_left": true,
        "missing_type": "None",
        "internal_value": -2.6311400000000004e-05,
        "internal_weight": 1594,
        "internal_count": 1594,
        "left_child": {
          "split_index": 4,
          "split_feature": 1,
          "split_gain": 2.3667900562286377,
          "threshold": 0.25500000000000006,
          "decision_type": "<=",
          "default_left": true,
          "missing_type": "None",
          "internal_value": -0.00658673,
          "internal_weight": 448,
          "internal_count": 448,
          "left_child": {
            "leaf_index": 0,
            "leaf_value": -0.002429419094788851,
            "leaf_weight": 99,
            "leaf_count": 99
          },
          "right_child": {
            "split_index": 7,
            "split_feature": 0,
            "split_gain": 0.20737500488758087,
            "threshold": 0.31750000000000006,
            "decision_type": "<=",
            "default_left": true,
            "missing_type": "None",
            "internal_value": -0.00774546,
            "internal_weight": 349,
            "internal_count": 349,
            "left_child": {
              "leaf_index": 5,
              "leaf_value": -0.0060224829039659845,
              "leaf_weight": 81,
              "leaf_count": 81
            },
            "right_child": {
              "leaf_index": 8,
              "leaf_value": -0.008217741628487905,
              "leaf_weight": 268,
              "leaf_count": 268
            }
          }
        },
        "right_child": {
          "split_index": 1,
          "split_feature": 4,
          "split_gain": 13.0246000289917,
          "threshold": 3521.0000000000005,
          "decision_type": "<=",
          "default_left": true,
          "missing_type": "None",
          "internal_value": 0.00254533,
          "internal_weight": 1146,
          "internal_count": 1146,
          "left_child": {
            "split_index": 2,
            "split_feature": 0,
            "split_gain": 12.8572998046875,
            "threshold": 0.49750000000000005,
            "decision_type": "<=",
            "default_left": true,
            "missing_type": "None",
            "internal_value": -1.56772e-05,
            "internal_weight": 699,
            "internal_count": 699,
            "left_child": {
              "split_index": 5,
              "split_feature": 2,
              "split_gain": 2.1407899856567383,
              "threshold": 0.09500000000000004,
              "decision_type": "<=",
              "default_left": true,
              "missing_type": "None",
              "internal_value": 0.00414082,
              "internal_weight": 341,
              "internal_count": 341,
              "left_child": {
                "leaf_index": 1,
                "leaf_value": 0.002679203898303593,
                "leaf_weight": 251,
                "leaf_count": 251
              },
              "right_child": {
                "leaf_index": 6,
                "leaf_value": 0.00807024343830088,
                "leaf_weight": 90,
                "leaf_count": 90
              }
            },
            "right_child": {
              "split_index": 3,
              "split_feature": 2,
              "split_gain": 2.5723400115966797,
              "threshold": 0.09000000000000007,
              "decision_type": "<=",
              "default_left": true,
              "missing_type": "None",
              "internal_value": -0.00397581,
              "internal_weight": 358,
              "internal_count": 358,
              "left_child": {
                "leaf_index": 3,
                "leaf_value": -0.0023700401084176424,
                "leaf_weight": 259,
                "leaf_count": 259
              },
              "right_child": {
                "leaf_index": 4,
                "leaf_value": -0.008046636020783149,
                "leaf_weight": 99,
                "leaf_count": 99
              }
            }
          },
          "right_child": {
            "split_index": 6,
            "split_feature": 0,
            "split_gain": 1.9961899518966675,
            "threshold": 0.7275000000000001,
            "decision_type": "<=",
            "default_left": true,
            "missing_type": "None",
            "internal_value": 0.00653235,
            "internal_weight": 447,
            "internal_count": 447,
            "left_child": {
              "leaf_index": 2,
              "leaf_value": 0.00803262455085982,
              "leaf_weight": 287,
              "leaf_count": 287
            },
            "right_child": {
              "split_index": 8,
              "split_feature": 6,
              "split_gain": 0.08162059634923935,
              "threshold": 384.20654790563316,
              "decision_type": "<=",
              "default_left": true,
              "missing_type": "None",
              "internal_value": 0.00377528,
              "internal_weight": 160,
              "internal_count": 160,
              "left_child": {
                "leaf_index": 7,
                "leaf_value": 0.004516397670093105,
                "leaf_weight": 80,
                "leaf_count": 80
              },
              "right_child": {
                "leaf_index": 9,
                "leaf_value": 0.0029420882218131206,
                "leaf_weight": 80,
                "leaf_count": 80
              }
            }
          }
        }
      }
    },
    {
      "tree_index": 7,
      "num_leaves": 9,
      "num_cat": 0,
      "shrinkage": 0.03,
      "tree_structure": {
        "split_index": 0,
        "split_feature": 4,
        "split_gain": 28.41160011291504,
        "threshold": -3520.9999999999995,
        "decision_type": "<=",
        "default_left": true,
        "missing_type": "None",
        "internal_value": -2.0214599999999998e-05,
        "internal_weight": 1602,
        "internal_count": 1602,
        "left_child": {
          "split_index": 4,
          "split_feature": 1,
          "split_gain": 2.1270499229431152,
          "threshold": 0.25500000000000006,
          "decision_type": "<=",
          "default_left": true,
          "missing_type": "None",
          "internal_value": -0.00635688,
          "internal_weight": 454,
          "internal_count": 454,
          "left_child": {
            "leaf_index": 0,
            "leaf_value": -0.002354944571288246,
            "leaf_weight": 97,
            "leaf_count": 97
          },
          "right_child": {
            "split_index": 7,
            "split_feature": 0,
            "split_gain": 0.30060499906539917,
            "threshold": 0.31750000000000006,
            "decision_type": "<=",
            "default_left": true,
            "missing_type": "None",
            "internal_value": -0.00742507,
            "internal_weight": 357,
            "internal_count": 357,
            "left_child": {
              "leaf_index": 5,
              "leaf_value": -0.00560313764711221,
              "leaf_weight": 88,
              "leaf_count": 88
            },
            "right_child": {
              "leaf_index": 8,
              "leaf_value": -0.007975341134405664,
              "leaf_weight": 269,
              "leaf_count": 269
            }
          }
        },
        "right_child": {
          "split_index": 1,
          "split_feature": 4,
          "split_gain": 12.018500328063965,
          "threshold": 3521.0000000000005,
          "decision_type": "<=",
          "default_left": true,
          "missing_type": "None",
          "internal_value": 0.00249245,
          "internal_weight": 1148,
          "internal_count": 1148,
          "left_child": {
            "split_index": 2,
            "split_feature": 0,
            "split_gain": 11.71500015258789,
            "threshold": 0.49750000000000005,
            "decision_type": "<=",
            "default_left": true,
            "missing_type": "None",
            "internal_value": 3.33692e-05,
            "internal_weight": 700,
            "internal_count": 700,
            "left_child": {
              "split_index": 3,
              "split_feature": 1,
              "split_gain": 2.2804598808288574,
              "threshold": 0.4050000000000001,
              "decision_type": "<=",
              "default_left": true,
              "missing_type": "None",
              "internal_value": 0.00400348,
              "internal_weight": 341,
              "internal_count": 341,
              "left_child": {
                "leaf_index": 1,
                "leaf_value": 0.00010574048667243033,
                "leaf_weight": 97,
                "leaf_count": 97
              },
              "right_child": {
                "leaf_index": 4,
                "leaf_value": 0.005539533830270534,
                "leaf_weight": 244,
                "leaf_count": 244
              }
            },
            "right_child": {
              "split_index": 6,
              "split_feature": 4,
              "split_gain": 1.695330023765564,
              "threshold": 1195.0000000000002,
              "decision_type": "<=",
              "default_left": true,
              "missing_type": "None",
              "internal_value": -0.00373897,
              "internal_weight": 359,
              "internal_count": 359,
              "left_child": {
                "leaf_index": 3,
                "leaf_value": -0.004923755301100742,
                "leaf_weight": 269,
                "leaf_count": 269
              },
              "right_child": {
                "leaf_index": 7,
                "leaf_value": -0.0001677253809959992,
                "leaf_weight": 90,
                "leaf_count": 90
              }
            }
          },
          "right_child": {
            "split_index": 5,
            "split_feature": 0,
            "split_gain": 1.9802900552749634,
            "threshold": 0.7275000000000001,
            "decision_type": "<=",
            "default_left": true,
            "missing_type": "None",
            "internal_value": 0.00631753,
            "internal_weight": 448,
            "internal_count": 448,
            "left_child": {
              "leaf_index": 2,
              "leaf_value": 0.007806447883104455,
              "leaf_weight": 288,
              "leaf_count": 288
            },
            "right_child": {
              "leaf_index": 6,
              "leaf_value": 0.0035741976952111277,
              "leaf_weight": 160,
              "leaf_count": 160
            }
          }
        }
      }
    },
    {
      "tree_index": 8,
      "num_leaves": 11,
      "num_cat": 0,
      "shrinkage": 0.03,
      "tree_structure": {
        "split_index": 0,
        "split_feature": 4,
        "split_gain": 27.99690055847168,
        "threshold": 2610.5000000000005,
        "decision_type": "<=",
        "default_left": true,
        "missing_type": "None",
        "internal_value": -7.01601e-05,
        "internal_weight": 1608,
        "internal_count": 1608,
        "left_child": {
          "split_index": 1,
          "split_feature": 4,
          "split_gain": 10.454899787902832,
          "threshold": -3520.9999999999995,
          "decision_type": "<=",
          "default_left": true,
          "missing_type": "None",
          "internal_value": -0.00268281,
          "internal_weight": 1120,
          "internal_count": 1120,
          "left_child": {
            "split_index": 5,
            "split_feature": 1,
            "split_gain": 1.8784899711608887,
            "threshold": 0.25500000000000006,
            "decision_type": "<=",
            "default_left": true,
            "missing_type": "None",
            "internal_value": -0.00618908,
            "internal_weight": 453,
            "internal_count": 453,
            "left_child": {
              "leaf_index": 0,
              "leaf_value": -0.0022719055789733127,
              "leaf_weight": 91,
              "leaf_count": 91
            },
            "right_child": {
              "split_index": 7,
              "split_feature": 0,
              "split_gain": 0.25112199783325195,
              "threshold": 0.31750000000000006,
              "decision_type": "<=",
              "default_left": true,
              "missing_type": "None",
              "internal_value": -0.00715589,
              "internal_weight": 362,
              "internal_count": 362,
              "left_child": {
                "leaf_index": 6,
                "leaf_value": -0.005459338833888372,
                "leaf_weight": 88,
                "leaf_count": 88
              },
              "right_child": {
                "leaf_index": 8,
                "leaf_value": -0.007657257193780464,
                "leaf_weight": 274,
                "leaf_count": 274
              }
            }
          },
          "right_child": {
            "split_index": 2,
            "split_feature": 0,
            "split_gain": 12.587200164794922,
            "threshold": 0.49750000000000005,
            "decision_type": "<=",
            "default_left": true,
            "missing_type": "None",
            "internal_value": -0.000290103,
            "internal_weight": 667,
            "internal_count": 667,
            "left_child": {
              "split_index": 3,
              "split_feature": 4,
              "split_gain": 2.332890033721924,
              "threshold": -1233.4999999999998,
              "decision_type": "<=",
              "default_left": true,
              "missing_type": "None",
              "internal_value": 0.00372883,
              "internal_weight": 341,
              "internal_count": 341,
              "left_child": {
                "leaf_index": 2,
                "leaf_value": -0.0003802944094904008,
                "leaf_weight": 91,
                "leaf_count": 91
              },
              "right_child": {
                "leaf_index": 4,
                "leaf_value": 0.00521570065014419,
                "leaf_weight": 250,
                "leaf_count": 250
              }
            },
            "right_child": {
              "split_index": 6,
              "split_feature": 4,
              "split_gain": 1.046470046043396,
              "threshold": 79.50000000000001,
              "decision_type": "<=",
              "default_left": true,
              "missing_type": "None",
              "internal_value": -0.00449106,
              "internal_weight": 326,
              "internal_count": 326,
              "left_child": {
                "leaf_index": 3,
                "leaf_value": -0.002562644813684809,
                "leaf_weight": 147,
                "leaf_count": 147
              },
              "right_child": {
                "leaf_index": 7,
                "leaf_value": -0.006028916641493529,
                "leaf_weight": 179,
                "leaf_count": 179
              }
            }
          }
        },
        "right_child": {
          "split_index": 4,
          "split_feature": 0,
          "split_gain": 2.2172698974609375,
          "threshold": 0.7175000000000001,
          "decision_type": "<=",
          "default_left": true,
          "missing_type": "None",
          "internal_value": 0.00591255,
          "internal_weight": 488,
          "internal_count": 488,
          "left_child": {
            "split_index": 9,
            "split_feature": 6,
            "split_gain": 0.015284200198948383,
            "threshold": 229.3390732003742,
            "decision_type": "<=",
            "default_left": true,
            "missing_type": "None",
            "internal_value": 0.00741077,
            "internal_weight": 315,
            "internal_count": 315,
            "left_child": {
              "leaf_index": 1,
              "leaf_value": 0.006358633634041656,
              "leaf_weight": 86,
              "leaf_count": 86
            },
            "right_child": {
              "leaf_index": 10,
              "leaf_value": 0.007747417432921273,
              "leaf_weight": 229,
              "leaf_count": 229
            }
          },
          "right_child": {
            "split_index": 8,
            "split_feature": 0,
            "split_gain": 0.09520140290260315,
            "threshold": 0.8475,
            "decision_type": "<=",
            "default_left": true,
            "missing_type": "None",
            "internal_value": 0.00313108,
            "internal_weight": 173,
            "internal_count": 173,
            "left_child": {
              "leaf_index": 5,
              "leaf_value": 0.0038196701556444165,
              "leaf_weight": 92,
              "leaf_count": 92
            },
            "right_child": {
              "leaf_index": 9,
              "leaf_value": 0.002275778248861253,
              "leaf_weight": 81,
              "leaf_count": 81
            }
          }
        }
      }
    },
    {
      "tree_index": 9,
      "num_leaves": 9,
      "num_cat": 0,
      "shrinkage": 0.03,
      "tree_structure": {
        "split_index": 0,
        "split_feature": 4,
        "split_gain": 25.42490005493164,
        "threshold": 3521.0000000000005,
        "decision_type": "<=",
        "default_left": true,
        "missing_type": "None",
        "internal_value": 5.0061999999999996e-05,
        "internal_weight": 1599,
        "internal_count": 1599,
        "left_child": {
          "split_index": 1,
          "split_feature": 4,
          "split_gain": 10.61870002746582,
          "threshold": -3520.9999999999995,
          "decision_type": "<=",
          "default_left": true,
          "missing_type": "None",
          "internal_value": -0.00236512,
          "internal_weight": 1136,
          "internal_count": 1136,
          "left_child": {
            "split_index": 5,
            "split_feature": 1,
            "split_gain": 1.7035599946975708,
            "threshold": 0.3350000000000001,
            "decision_type": "<=",
            "default_left": true,
            "missing_type": "None",
            "internal_value": -0.00600832,
            "internal_weight": 439,
            "internal_count": 439,
            "left_child": {
              "leaf_index": 0,
              "leaf_value": -0.003238355098098206,
              "leaf_weight": 142,
              "leaf_count": 142
            },
            "right_child": {
              "leaf_index": 6,
              "leaf_value": -0.0073021625266425985,
              "leaf_weight": 297,
              "leaf_count": 297
            }
          },
          "right_child": {
            "split_index": 2,
            "split_feature": 1,
            "split_gain": 8.926250457763672,
            "threshold": 0.5350000000000001,
            "decision_type": "<=",
            "default_left": true,
            "missing_type": "None",
            "internal_value": -5.9858700000000003e-05,
            "internal_weight": 697,
            "internal_count": 697,
            "left_child": {
              "split_index": 4,
              "split_feature": 2,
              "split_gain": 2.0656700134277344,
              "threshold": 0.09500000000000004,
              "decision_type": "<=",
              "default_left": true,
              "missing_type": "None",
              "internal_value": 0.0032634,
              "internal_weight": 355,
              "internal_count": 355,
              "left_child": {
                "leaf_index": 2,
                "leaf_value": 0.001990207731723785,
                "leaf_weight": 274,
                "leaf_count": 274
              },
              "right_child": {
                "leaf_index": 5,
                "leaf_value": 0.007418522073561886,
                "leaf_weight": 81,
                "leaf_count": 81
              }
            },
            "right_child": {
              "split_index": 3,
              "split_feature": 3,
              "split_gain": 2.4201700687408447,
              "threshold": 1456.5000000000002,
              "decision_type": "<=",
              "default_left": true,
              "missing_type": "None",
              "internal_value": -0.00350836,
              "internal_weight": 342,
              "internal_count": 342,
              "left_child": {
                "leaf_index": 3,
                "leaf_value": -0.005085436561812273,
                "leaf_weight": 245,
                "leaf_count": 245
              },
              "right_child": {
                "leaf_index": 4,
                "leaf_value": 0.0004972420136133829,
                "leaf_weight": 97,
                "leaf_count": 97
              }
            }
          }
        },
        "right_child": {
          "split_index": 6,
          "split_feature": 1,
          "split_gain": 1.3182899951934814,
          "threshold": 0.8750000000000001,
          "decision_type": "<=",
          "default_left": true,
          "missing_type": "None",
          "internal_value": 0.00596056,
          "internal_weight": 463,
          "internal_count": 463,
          "left_child": {
            "split_index": 7,
            "split_feature": 4,
            "split_gain": 0.34847700595855713,
            "threshold": 7271.000000000001,
            "decision_type": "<=",
            "default_left": true,
            "missing_type": "None",
            "internal_value": 0.00690532,
            "internal_weight": 344,
            "internal_count": 344,
            "left_child": {
              "leaf_index": 1,
              "leaf_value": 0.004914385323844305,
              "leaf_weight": 80,
              "leaf_count": 80
            },
            "right_child": {
              "leaf_index": 8,
              "leaf_value": 0.007467147754435252,
              "leaf_weight": 264,
              "leaf_count": 264
            }
          },
          "right_child": {
            "leaf_index": 7,
            "leaf_value": 0.0031604903316787203,
            "leaf_weight": 119,
            "leaf_count": 119
          }
        }
      }
    },
    {
      "tree_index": 10,
      "num_leaves": 11,
      "num_cat": 0,
      "shrinkage": 0.03,
      "tree_structure": {
        "split_index": 0,
        "split_feature": 4,
        "split_gain": 23.988300323486328,
        "threshold": 2610.5000000000005,
        "decision_type": "<=",
        "default_left": true,
        "missing_type": "None",
        "internal_value": -1.90044e-05,
        "internal_weight": 1598,
        "internal_count": 1598,
        "left_child": {
          "split_index": 1,
          "split_feature": 4,
          "split_gain": 8.96189022064209,
          "threshold": -4253.999999999999,
          "decision_type": "<=",
          "default_left": true,
          "missing_type": "None",
          "internal_value": -0.00243439,
          "internal_weight": 1116,
          "internal_count": 1116,
          "left_child": {
            "split_index": 6,
            "split_feature": 0,
            "split_gain": 1.5886600017547607,
            "threshold": 0.22250000000000006,
            "decision_type": "<=",
            "default_left": true,
            "missing_type": "None",
            "internal_value": -0.00578742,
            "internal_weight": 435,
            "internal_count": 435,
            "left_child": {
              "leaf_index": 0,
              "leaf_value": -0.002528802616030185,
              "leaf_weight": 106,
              "leaf_count": 106
            },
            "right_child": {
              "split_index": 8,
              "split_feature": 4,
              "split_gain": 0.08641190081834793,
              "threshold": -8781.999999999998,
              "decision_type": "<=",
              "default_left": true,
              "missing_type": "None",
              "internal_value": -0.00681569,
              "internal_weight": 329,
              "internal_count": 329,
              "left_child": {
                "leaf_index": 7,
                "leaf_value": -0.007183285019549715,
                "leaf_weight": 249,
                "leaf_count": 249
              },
              "right_child": {
                "leaf_index": 9,
                "leaf_value": -0.0055242485153238945,
                "leaf_weight": 80,
                "leaf_count": 80
              }
            }
          },
          "right_child": {
            "split_index": 2,
            "split_feature": 0,
            "split_gain": 11.03689956665039,
            "threshold": 0.5025000000000001,
            "decision_type": "<=",
            "default_left": true,
            "missing_type": "None",
            "internal_value": -0.000281917,
            "internal_weight": 681,
            "internal_count": 681,
            "left_child": {
              "split_index": 4,
              "split_feature": 2,
              "split_gain": 1.9983400106430054,
              "threshold": 0.09500000000000004,
              "decision_type": "<=",
              "default_left": true,
              "missing_type": "None",
              "internal_value": 0.0033797,
              "internal_weight": 354,
              "internal_count": 354,
              "left_child": {
                "leaf_index": 2,
                "leaf_value": 0.002073164461387528,
                "leaf_weight": 268,
                "leaf_count": 268
              },
              "right_child": {
                "leaf_index": 5,
                "leaf_value": 0.007311580191281709,
                "leaf_weight": 86,
                "leaf_count": 86
              }
            },
            "right_child": {
              "split_index": 5,
              "split_feature": 2,
              "split_gain": 1.7418400049209595,
              "threshold": 0.10000000000000007,
              "decision_type": "<=",
              "default_left": true,
              "missing_type": "None",
              "internal_value": -0.00424232,
              "internal_weight": 327,
              "internal_count": 327,
              "left_child": {
                "leaf_index": 3,
                "leaf_value": -0.0027685632450239997,
                "leaf_weight": 229,
                "leaf_count": 229
              },
              "right_child": {
                "leaf_index": 6,
                "leaf_value": -0.007561843737959862,
                "leaf_weight": 98,
                "leaf_count": 98
              }
            }
          }
        },
        "right_child": {
          "split_index": 3,
          "split_feature": 0,
          "split_gain": 2.038640022277832,
          "threshold": 0.7175000000000001,
          "decision_type": "<=",
          "default_left": true,
          "missing_type": "None",
          "internal_value": 0.00556042,
          "internal_weight": 482,
          "internal_count": 482,
          "left_child": {
            "split_index": 9,
            "split_feature": 5,
            "split_gain": 0.03624960035085678,
            "threshold": 3.5000000000000004,
            "decision_type": "<=",
            "default_left": true,
            "missing_type": "None",
            "internal_value": 0.00704588,
            "internal_weight": 305,
            "internal_count": 305,
            "left_child": {
              "leaf_index": 1,
              "leaf_value": 0.00785868810077684,
              "leaf_weight": 111,
              "leaf_count": 111
            },
            "right_child": {
              "leaf_index": 10,
              "leaf_value": 0.006505381198105763,
              "leaf_weight": 194,
              "leaf_count": 194
            }
          },
          "right_child": {
            "split_index": 7,
            "split_feature": 2,
            "split_gain": 0.26666998863220215,
            "threshold": 0.08000000000000006,
            "decision_type": "<=",
            "default_left": true,
            "missing_type": "None",
            "internal_value": 0.00295061,
            "internal_weight": 177,
            "internal_count": 177,
            "left_child": {
              "leaf_index": 4,
              "leaf_value": 0.0017962730895669664,
              "leaf_weight": 94,
              "leaf_count": 94
            },
            "right_child": {
              "leaf_index": 8,
              "leaf_value": 0.004184904850581113,
              "leaf_weight": 83,
              "leaf_count": 83
            }
          }
        }
      }
    },
    {
      "tree_index": 11,
      "num_leaves": 10,
      "num_cat": 0,
      "shrinkage": 0.03,
      "tree_structure": {
        "split_index": 0,
        "split_feature": 4,
        "split_gain": 22.149499893188477,
        "threshold": 3521.0000000000005,
        "decision_type": "<=",
        "default_left": true,
        "missing_type": "None",
        "internal_value": -2.9488699999999998e-05,
        "internal_weight": 1578,
        "internal_count": 1578,
        "left_child": {
          "split_index": 1,
          "split_feature": 4,
          "split_gain": 9.497079849243164,
          "threshold": -3520.9999999999995,
          "decision_type": "<=",
          "default_left": true,
          "missing_type": "None",
          "internal_value": -0.00225367,
          "internal_weight": 1134,
          "internal_count": 1134,
          "left_child": {
            "split_index": 4,
            "split_feature": 1,
            "split_gain": 1.7781699895858765,
            "threshold": 0.25500000000000006,
            "decision_type": "<=",
            "default_left": true,
            "missing_type": "None",
            "internal_value": -0.00560332,
            "internal_weight": 454,
            "internal_count": 454,
            "left_child": {
              "leaf_index": 0,
              "leaf_value": -0.0019735832691192626,
              "leaf_weight": 98,
              "leaf_count": 98
            },
            "right_child": {
              "split_index": 7,
              "split_feature": 0,
              "split_gain": 0.14368300139904022,
              "threshold": 0.31750000000000006,
              "decision_type": "<=",
              "default_left": true,
              "missing_type": "None",
              "internal_value": -0.00658591,
              "internal_weight": 356,
              "internal_count": 356,
              "left_child": {
                "leaf_index": 5,
                "leaf_value": -0.005208984643220902,
                "leaf_weight": 88,
                "leaf_count": 88
              },
              "right_child": {
                "leaf_index": 8,
                "leaf_value": -0.006996104546719127,
                "leaf_weight": 268,
                "leaf_count": 268
              }
            }
          },
          "right_child": {
            "split_index": 2,
            "split_feature": 0,
            "split_gain": 7.760310173034668,
            "threshold": 0.5025000000000001,
            "decision_type": "<=",
            "default_left": true,
            "missing_type": "None",
            "internal_value": -7.41726e-06,
            "internal_weight": 680,
            "internal_count": 680,
            "left_child": {
              "split_index": 3,
              "split_feature": 1,
              "split_gain": 1.9172999858856201,
              "threshold": 0.4050000000000001,
              "decision_type": "<=",
              "default_left": true,
              "missing_type": "None",
              "internal_value": 0.0031509,
              "internal_weight": 344,
              "internal_count": 344,
              "left_child": {
                "leaf_index": 2,
                "leaf_value": -0.0005218507600458044,
                "leaf_weight": 93,
                "leaf_count": 93
              },
              "right_child": {
                "leaf_index": 4,
                "leaf_value": 0.004505091841984172,
                "leaf_weight": 251,
                "leaf_count": 251
              }
            },
            "right_child": {
              "split_index": 5,
              "split_feature": 3,
              "split_gain": 1.7682299613952637,
              "threshold": 1456.5000000000002,
              "decision_type": "<=",
              "default_left": true,
              "missing_type": "None",
              "internal_value": -0.00324045,
              "internal_weight": 336,
              "internal_count": 336,
              "left_child": {
                "leaf_index": 3,
                "leaf_value": -0.004547709791410354,
                "leaf_weight": 246,
                "leaf_count": 246
              },
              "right_child": {
                "leaf_index": 6,
                "leaf_value": 0.0003539244182731794,
                "leaf_weight": 90,
                "leaf_count": 90
              }
            }
          }
        },
        "right_child": {
          "split_index": 6,
          "split_feature": 0,
          "split_gain": 1.5972700119018555,
          "threshold": 0.7975000000000002,
          "decision_type": "<=",
          "default_left": true,
          "missing_type": "None",
          "internal_value": 0.00563583,
          "internal_weight": 444,
          "internal_count": 444,
          "left_child": {
            "split_index": 8,
            "split_feature": 3,
            "split_gain": 0.0931674987077713,
            "threshold": 2157.5000000000005,
            "decision_type": "<=",
            "default_left": true,
            "missing_type": "None",
            "internal_value": 0.00660443,
            "internal_weight": 344,
            "internal_count": 344,
            "left_child": {
              "leaf_index": 1,
              "leaf_value": 0.005305473150276557,
              "leaf_weight": 80,
              "leaf_count": 80
            },
            "right_child": {
              "leaf_index": 9,
              "leaf_value": 0.006955207961058258,
              "leaf_weight": 264,
              "leaf_count": 264
            }
          },
          "right_child": {
            "leaf_index": 7,
            "leaf_value": 0.0022396812344189073,
            "leaf_weight": 100,
            "leaf_count": 100
          }
        }
      }
    },
    {
      "tree_index": 12,
      "num_leaves": 9,
      "num_cat": 0,
      "shrinkage": 0.03,
      "tree_structure": {
        "split_index": 0,
        "split_feature": 4,
        "split_gain": 22.04330062866211,
        "threshold": -2631.4999999999995,
        "decision_type": "<=",
        "default_left": true,
        "missing_type": "None",
        "internal_value": -3.12325e-05,
        "internal_weight": 1591,
        "internal_count": 1591,
        "left_child": {
          "split_index": 5,
          "split_feature": 1,
          "split_gain": 1.8839600086212158,
          "threshold": 0.32500000000000007,
          "decision_type": "<=",
          "default_left": true,
          "missing_type": "None",
          "internal_value": -0.00529633,
          "internal_weight": 492,
          "internal_count": 492,
          "left_child": {
            "leaf_index": 0,
            "leaf_value": -0.0025265321102659393,
            "leaf_weight": 156,
            "leaf_count": 156
          },
          "right_child": {
            "leaf_index": 6,
            "leaf_value": -0.006559750345596195,
            "leaf_weight": 336,
            "leaf_count": 336
          }
        },
        "right_child": {
          "split_index": 1,
          "split_feature": 4,
          "split_gain": 8.159729957580566,
          "threshold": 4254.000000000001,
          "decision_type": "<=",
          "default_left": true,
          "missing_type": "None",
          "internal_value": 0.00233118,
          "internal_weight": 1099,
          "internal_count": 1099,
          "left_child": {
            "split_index": 2,
            "split_feature": 0,
            "split_gain": 9.4518404006958,
            "threshold": 0.48250000000000004,
            "decision_type": "<=",
            "default_left": true,
            "missing_type": "None",
            "internal_value": 0.000247147,
            "internal_weight": 667,
            "internal_count": 667,
            "left_child": {
              "split_index": 3,
              "split_feature": 1,
              "split_gain": 2.865370035171509,
              "threshold": 0.4050000000000001,
              "decision_type": "<=",
              "default_left": true,
              "missing_type": "None",
              "internal_value": 0.00413513,
              "internal_weight": 304,
              "internal_count": 304,
              "left_child": {
                "leaf_index": 1,
                "leaf_value": -0.0006093228652196772,
                "leaf_weight": 83,
                "leaf_count": 83
              },
              "right_child": {
                "leaf_index": 4,
                "leaf_value": 0.0059064728141900134,
                "leaf_weight": 221,
                "leaf_count": 221
              }
            },
            "right_child": {
              "split_index": 4,
              "split_feature": 2,
              "split_gain": 2.4740800857543945,
              "threshold": 0.09000000000000007,
              "decision_type": "<=",
              "default_left": true,
              "missing_type": "None",
              "internal_value": -0.00301372,
              "internal_weight": 363,
              "internal_count": 363,
              "left_child": {
                "leaf_index": 3,
                "leaf_value": -0.0015045506770282873,
                "leaf_weight": 267,
                "leaf_count": 267
              },
              "right_child": {
                "leaf_index": 5,
                "leaf_value": -0.007094747329853018,
                "leaf_weight": 96,
                "leaf_count": 96
              }
            }
          },
          "right_child": {
            "split_index": 6,
            "split_feature": 0,
            "split_gain": 1.3873399496078491,
            "threshold": 0.8175000000000001,
            "decision_type": "<=",
            "default_left": true,
            "missing_type": "None",
            "internal_value": 0.00553293,
            "internal_weight": 432,
            "internal_count": 432,
            "left_child": {
              "split_index": 7,
              "split_feature": 0,
              "split_gain": 0.1557309925556183,
              "threshold": 0.6825000000000001,
              "decision_type": "<=",
              "default_left": true,
              "missing_type": "None",
              "internal_value": 0.00639145,
              "internal_weight": 344,
              "internal_count": 344,
              "left_child": {
                "leaf_index": 2,
                "leaf_value": 0.006801097588156754,
                "leaf_weight": 263,
                "leaf_count": 263
              },
              "right_child": {
                "leaf_index": 8,
                "leaf_value": 0.004929526001214981,
                "leaf_weight": 81,
                "leaf_count": 81
              }
            },
            "right_child": {
              "leaf_index": 7,
              "leaf_value": 0.002109457745372007,
              "leaf_weight": 88,
              "leaf_count": 88
            }
          }
        }
      }
    },
    {
      "tree_index": 13,
      "num_leaves": 10,
      "num_cat": 0,
      "shrinkage": 0.03,
      "tree_structure": {
        "split_index": 0,
        "split_feature": 4,
        "split_gain": 19.9596004486084,
        "threshold": -2631.4999999999995,
        "decision_type": "<=",
        "default_left": true,
        "missing_type": "None",
        "internal_value": 0.00012163,
        "internal_weight": 1601,
        "internal_count": 1601,
        "left_child": {
          "split_index": 5,
          "split_feature": 1,
          "split_gain": 1.8379900455474854,
          "threshold": 0.3350000000000001,
          "decision_type": "<=",
          "default_left": true,
          "missing_type": "None",
          "internal_value": -0.00503856,
          "internal_weight": 473,
          "internal_count": 473,
          "left_child": {
            "leaf_index": 0,
            "leaf_value": -0.0023184670245194818,
            "leaf_weight": 155,
            "leaf_count": 155
          },
          "right_child": {
            "split_index": 8,
            "split_feature": 5,
            "split_gain": 0.019029200077056885,
            "threshold": -3.4999999999999996,
            "decision_type": "<=",
            "default_left": true,
            "missing_type": "None",
            "internal_value": -0.00634161,
            "internal_weight": 318,
            "internal_count": 318,
            "left_child": {
              "leaf_index": 6,
              "leaf_value": -0.005906745969968021,
              "leaf_weight": 210,
              "leaf_count": 210
            },
            "right_child": {
              "leaf_index": 9,
              "leaf_value": -0.007064405700022524,
              "leaf_weight": 108,
              "leaf_count": 108
            }
          }
        },
        "right_child": {
          "split_index": 1,
          "split_feature": 4,
          "split_gain": 8.076569557189941,
          "threshold": 3521.0000000000005,
          "decision_type": "<=",
          "default_left": true,
          "missing_type": "None",
          "internal_value": 0.00229052,
          "internal_weight": 1128,
          "internal_count": 1128,
          "left_child": {
            "split_index": 2,
            "split_feature": 1,
            "split_gain": 8.506340026855469,
            "threshold": 0.5350000000000001,
            "decision_type": "<=",
            "default_left": true,
            "missing_type": "None",
            "internal_value": 0.000169147,
            "internal_weight": 665,
            "internal_count": 665,
            "left_child": {
              "split_index": 3,
              "split_feature": 1,
              "split_gain": 2.1582000255584717,
              "threshold": 0.4050000000000001,
              "decision_type": "<=",
              "default_left": true,
              "missing_type": "None",
              "internal_value": 0.00358706,
              "internal_weight": 329,
              "internal_count": 329,
              "left_child": {
                "leaf_index": 1,
                "leaf_value": -0.0004907599430192601,
                "leaf_weight": 86,
                "leaf_count": 86
              },
              "right_child": {
                "leaf_index": 4,
                "leaf_value": 0.0050224663116494005,
                "leaf_weight": 243,
                "leaf_count": 243
              }
            },
            "right_child": {
              "split_index": 4,
              "split_feature": 4,
              "split_gain": 1.8499300479888916,
              "threshold": 1195.0000000000002,
              "decision_type": "<=",
              "default_left": true,
              "missing_type": "None",
              "internal_value": -0.00317898,
              "internal_weight": 336,
              "internal_count": 336,
              "left_child": {
                "leaf_index": 3,
                "leaf_value": -0.004526302991849691,
                "leaf_weight": 245,
                "leaf_count": 245
              },
              "right_child": {
                "leaf_index": 5,
                "leaf_value": 0.00046774581555397276,
                "leaf_weight": 91,
                "leaf_count": 91
              }
            }
          },
          "right_child": {
            "split_index": 6,
            "split_feature": 1,
            "split_gain": 1.037369966506958,
            "threshold": 0.8750000000000001,
            "decision_type": "<=",
            "default_left": true,
            "missing_type": "None",
            "internal_value": 0.00532358,
            "internal_weight": 463,
            "internal_count": 463,
            "left_child": {
              "split_index": 7,
              "split_feature": 4,
              "split_gain": 0.2762550115585327,
              "threshold": 7271.000000000001,
              "decision_type": "<=",
              "default_left": true,
              "missing_type": "None",
              "internal_value": 0.00615223,
              "internal_weight": 346,
              "internal_count": 346,
              "left_child": {
                "leaf_index": 2,
                "leaf_value": 0.004405208663748843,
                "leaf_weight": 82,
                "leaf_count": 82
              },
              "right_child": {
                "leaf_index": 8,
                "leaf_value": 0.006657666274087321,
                "leaf_weight": 264,
                "leaf_count": 264
              }
            },
            "right_child": {
              "leaf_index": 7,
              "leaf_value": 0.0028108333341117964,
              "leaf_weight": 117,
              "leaf_count": 117
            }
          }
        }
      }
    },
    {
      "tree_index": 14,
      "num_leaves": 10,
      "num_cat": 0,
      "shrinkage": 0.03,
      "tree_structure": {
        "split_index": 0,
        "split_feature": 4,
        "split_gain": 19.25550079345703,
        "threshold": -2131.4999999999995,
        "decision_type": "<=",
        "default_left": true,
        "missing_type": "None",
        "internal_value": 0.000166197,
        "internal_weight": 1593,
        "internal_count": 1593,
        "left_child": {
          "split_index": 4,
          "split_feature": 1,
          "split_gain": 1.6021000146865845,
          "threshold": 0.3350000000000001,
          "decision_type": "<=",
          "default_left": true,
          "missing_type": "None",
          "internal_value": -0.00475635,
          "internal_weight": 492,
          "internal_count": 492,
          "left_child": {
            "leaf_index": 0,
            "leaf_value": -0.002204736939961491,
            "leaf_weight": 156,
            "leaf_count": 156
          },
          "right_child": {
            "split_index": 7,
            "split_feature": 4,
            "split_gain": 0.21074199676513672,
            "threshold": -7270.999999999999,
            "decision_type": "<=",
            "default_left": true,
            "missing_type": "None",
            "internal_value": -0.00592097,
            "internal_weight": 336,
            "internal_count": 336,
            "left_child": {
              "leaf_index": 5,
              "leaf_value": -0.006394360442682514,
              "leaf_weight": 252,
              "leaf_count": 252
            },
            "right_child": {
              "leaf_index": 8,
              "leaf_value": -0.004385109715336977,
              "leaf_weight": 84,
              "leaf_count": 84
            }
          }
        },
        "right_child": {
          "split_index": 1,
          "split_feature": 4,
          "split_gain": 6.967259883880615,
          "threshold": 3521.0000000000005,
          "decision_type": "<=",
          "default_left": true,
          "missing_type": "None",
          "internal_value": 0.00237055,
          "internal_weight": 1101,
          "internal_count": 1101,
          "left_child": {
            "split_index": 2,
            "split_feature": 0,
            "split_gain": 9.40783977508545,
            "threshold": 0.49750000000000005,
            "decision_type": "<=",
            "default_left": true,
            "missing_type": "None",
            "internal_value": 0.000345224,
            "internal_weight": 641,
            "internal_count": 641,
            "left_child": {
              "split_index": 3,
              "split_feature": 1,
              "split_gain": 3.2995200157165527,
              "threshold": 0.4050000000000001,
              "decision_type": "<=",
              "default_left": true,
              "missing_type": "None",
              "internal_value": 0.00418152,
              "internal_weight": 302,
              "internal_count": 302,
              "left_child": {
                "leaf_index": 1,
                "leaf_value": -0.0009818142562745564,
                "leaf_weight": 81,
                "leaf_count": 81
              },
              "right_child": {
                "leaf_index": 4,
                "leaf_value": 0.006065790276356342,
                "leaf_weight": 221,
                "leaf_count": 221
              }
            },
            "right_child": {
              "split_index": 6,
              "split_feature": 4,
              "split_gain": 1.2113200426101685,
              "threshold": 1195.0000000000002,
              "decision_type": "<=",
              "default_left": true,
              "missing_type": "None",
              "internal_value": -0.00307684,
              "internal_weight": 339,
              "internal_count": 339,
              "left_child": {
                "leaf_index": 3,
                "leaf_value": -0.004147520277842107,
                "leaf_weight": 249,
                "leaf_count": 249
              },
              "right_child": {
                "leaf_index": 7,
                "leaf_value": -8.884924261466317e-05,
                "leaf_weight": 90,
                "leaf_count": 90
              }
            }
          },
          "right_child": {
            "split_index": 5,
            "split_feature": 0,
            "split_gain": 1.4192500114440918,
            "threshold": 0.7975000000000002,
            "decision_type": "<=",
            "default_left": true,
            "missing_type": "None",
            "internal_value": 0.00517909,
            "internal_weight": 460,
            "internal_count": 460,
            "left_child": {
              "split_index": 8,
              "split_feature": 0,
              "split_gain": 0.20127800107002258,
              "threshold": 0.6825000000000001,
              "decision_type": "<=",
              "default_left": true,
              "missing_type": "None",
              "internal_value": 0.00608391,
              "internal_weight": 355,
              "internal_count": 355,
              "left_child": {
                "leaf_index": 2,
                "leaf_value": 0.0065228316253358185,
                "leaf_weight": 271,
                "leaf_count": 271
              },
              "right_child": {
                "leaf_index": 9,
                "leaf_value": 0.00454910259953765,
                "leaf_weight": 84,
                "leaf_count": 84
              }
            },
            "right_child": {
              "leaf_index": 6,
              "leaf_value": 0.0020634162911675243,
              "leaf_weight": 105,
              "leaf_count": 105
            }
          }
        }
      }
    },
    {
      "tree_index": 15,
      "num_leaves": 10,
      "num_cat": 0,
      "shrinkage": 0.03,
      "tree_structure": {
        "split_index": 0,
        "split_feature": 4,
        "split_gain": 17.563100814819336,
        "threshold": -3520.9999999999995,
        "decision_type": "<=",
        "default_left": true,
        "missing_type": "None",
        "internal_value": 4.89119e-06,
        "internal_weight": 1602,
        "internal_count": 1602,
        "left_child": {
          "split_index": 5,
          "split_feature": 1,
          "split_gain": 1.393630027770996,
          "threshold": 0.25500000000000006,
          "decision_type": "<=",
          "default_left": true,
          "missing_type": "None",
          "internal_value": -0.00494691,
          "internal_weight": 458,
          "internal_count": 458,
          "left_child": {
            "leaf_index": 0,
            "leaf_value": -0.0017704774831038186,
            "leaf_weight": 100,
            "leaf_count": 100
          },
          "right_child": {
            "split_index": 7,
            "split_feature": 0,
            "split_gain": 0.1622609943151474,
            "threshold": 0.31750000000000006,
            "decision_type": "<=",
            "default_left": true,
            "missing_type": "None",
            "internal_value": -0.00581942,
            "internal_weight": 358,
            "internal_count": 358,
            "left_child": {
              "leaf_index": 6,
              "leaf_value": -0.004432484024966305,
              "leaf_weight": 86,
              "leaf_count": 86
            },
            "right_child": {
              "leaf_index": 8,
              "leaf_value": -0.0062223757493452434,
              "leaf_weight": 272,
              "leaf_count": 272
            }
          }
        },
        "right_child": {
          "split_index": 1,
          "split_feature": 4,
          "split_gain": 7.1810197830200195,
          "threshold": 3521.0000000000005,
          "decision_type": "<=",
          "default_left": true,
          "missing_type": "None",
          "internal_value": 0.00199252,
          "internal_weight": 1144,
          "internal_count": 1144,
          "left_child": {
            "split_index": 2,
            "split_feature": 0,
            "split_gain": 6.85575008392334,
            "threshold": 0.43750000000000006,
            "decision_type": "<=",
            "default_left": true,
            "missing_type": "None",
            "internal_value": 7.57843e-05,
            "internal_weight": 694,
            "internal_count": 694,
            "left_child": {
              "split_index": 3,
              "split_feature": 1,
              "split_gain": 3.1165199279785156,
              "threshold": 0.4050000000000001,
              "decision_type": "<=",
              "default_left": true,
              "missing_type": "None",
              "internal_value": 0.00388767,
              "internal_weight": 262,
              "internal_count": 262,
              "left_child": {
                "leaf_index": 1,
                "leaf_value": -0.00045062853042612366,
                "leaf_weight": 95,
                "leaf_count": 95
              },
              "right_child": {
                "leaf_index": 4,
                "leaf_value": 0.006331685730338802,
                "leaf_weight": 167,
                "leaf_count": 167
              }
            },
            "right_child": {
              "split_index": 4,
              "split_feature": 0,
              "split_gain": 1.528880000114441,
              "threshold": 0.5725000000000001,
              "decision_type": "<=",
              "default_left": true,
              "missing_type": "None",
              "internal_value": -0.00224331,
              "internal_weight": 432,
              "internal_count": 432,
              "left_child": {
                "leaf_index": 3,
                "leaf_value": -0.00010672431190808614,
                "leaf_weight": 178,
                "leaf_count": 178
              },
              "right_child": {
                "leaf_index": 5,
                "leaf_value": -0.003728076786501333,
                "leaf_weight": 254,
                "leaf_count": 254
              }
            }
          },
          "right_child": {
            "split_index": 6,
            "split_feature": 0,
            "split_gain": 1.3610199689865112,
            "threshold": 0.7975000000000002,
            "decision_type": "<=",
            "default_left": true,
            "missing_type": "None",
            "internal_value": 0.00493513,
            "internal_weight": 450,
            "internal_count": 450,
            "left_child": {
              "split_index": 8,
              "split_feature": 3,
              "split_gain": 0.10821299999952316,
              "threshold": 2157.5000000000005,
              "decision_type": "<=",
              "default_left": true,
              "missing_type": "None",
              "internal_value": 0.0058718,
              "internal_weight": 340,
              "internal_count": 340,
              "left_child": {
                "leaf_index": 2,
                "leaf_value": 0.004625263752306209,
                "leaf_weight": 83,
                "leaf_count": 83
              },
              "right_child": {
                "leaf_index": 9,
                "leaf_value": 0.0062355555858621264,
                "leaf_weight": 257,
                "leaf_count": 257
              }
            },
            "right_child": {
              "leaf_index": 7,
              "leaf_value": 0.001986799298569427,
              "leaf_weight": 110,
              "leaf_count": 110
            }
          }
        }
      }
    },
    {
      "tree_index": 16,
      "num_leaves": 11,
      "num_cat": 0,
      "shrinkage": 0.03,
      "tree_structure": {
        "split_index": 0,
        "split_feature": 4,
        "split_gain": 17.577199935913086,
        "threshold": -2631.4999999999995,
        "decision_type": "<=",
        "default_left": true,
        "missing_type": "None",
        "internal_value": -2.76378e-05,
        "internal_weight": 1606,
        "internal_count": 1606,
        "left_child": {
          "split_index": 4,
          "split_feature": 0,
          "split_gain": 1.4495199918746948,
          "threshold": 0.2775000000000001,
          "decision_type": "<=",
          "default_left": true,
          "missing_type": "None",
          "internal_value": -0.00476668,
          "internal_weight": 488,
          "internal_count": 488,
          "left_child": {
            "split_index": 8,
            "split_feature": 0,
            "split_gain": 0.08158019930124283,
            "threshold": 0.14750000000000002,
            "decision_type": "<=",
            "default_left": true,
            "missing_type": "None",
            "internal_value": -0.00250809,
            "internal_weight": 172,
            "internal_count": 172,
            "left_child": {
              "leaf_index": 0,
              "leaf_value": -0.0017402536310928772,
              "leaf_weight": 81,
              "leaf_count": 81
            },
            "right_child": {
              "leaf_index": 9,
              "leaf_value": -0.0031394280877805525,
              "leaf_weight": 91,
              "leaf_count": 91
            }
          },
          "right_child": {
            "split_index": 9,
            "split_feature": 5,
            "split_gain": 0.05080629885196686,
            "threshold": -3.4999999999999996,
            "decision_type": "<=",
            "default_left": true,
            "missing_type": "None",
            "internal_value": -0.00597253,
            "internal_weight": 316,
            "internal_count": 316,
            "left_child": {
              "leaf_index": 5,
              "leaf_value": -0.005483048468828201,
              "leaf_weight": 203,
              "leaf_count": 203
            },
            "right_child": {
              "leaf_index": 10,
              "leaf_value": -0.006741218727567921,
              "leaf_weight": 113,
              "leaf_count": 113
            }
          }
        },
        "right_child": {
          "split_index": 1,
          "split_feature": 4,
          "split_gain": 6.6835198402404785,
          "threshold": 3521.0000000000005,
          "decision_type": "<=",
          "default_left": true,
          "missing_type": "None",
          "internal_value": 0.00204574,
          "internal_weight": 1118,
          "internal_count": 1118,
          "left_child": {
            "split_index": 2,
            "split_feature": 0,
            "split_gain": 8.229680061340332,
            "threshold": 0.48250000000000004,
            "decision_type": "<=",
            "default_left": true,
            "missing_type": "None",
            "internal_value": 0.000131942,
            "internal_weight": 666,
            "internal_count": 666,
            "left_child": {
              "split_index": 6,
              "split_feature": 2,
              "split_gain": 1.1308200359344482,
              "threshold": 0.09500000000000004,
              "decision_type": "<=",
              "default_left": true,
              "missing_type": "None",
              "internal_value": 0.00373613,
              "internal_weight": 306,
              "internal_count": 306,
              "left_child": {
                "leaf_index": 1,
                "leaf_value": 0.0025005600829091333,
                "leaf_weight": 214,
                "leaf_count": 214
              },
              "right_child": {
                "leaf_index": 7,
                "leaf_value": 0.00649583174034636,
                "leaf_weight": 92,
                "leaf_count": 92
              }
            },
            "right_child": {
              "split_index": 3,
              "split_feature": 2,
              "split_gain": 1.7976000308990479,
              "threshold": 0.09000000000000007,
              "decision_type": "<=",
              "default_left": true,
              "missing_type": "None",
              "internal_value": -0.00293534,
              "internal_weight": 360,
              "internal_count": 360,
              "left_child": {
                "leaf_index": 3,
                "leaf_value": -0.0016238206804923291,
                "leaf_weight": 263,
                "leaf_count": 263
              },
              "right_child": {
                "leaf_index": 4,
                "leaf_value": -0.006386663751168684,
                "leaf_weight": 97,
                "leaf_count": 97
              }
            }
          },
          "right_child": {
            "split_index": 5,
            "split_feature": 0,
            "split_gain": 1.1317600011825562,
            "threshold": 0.7975000000000002,
            "decision_type": "<=",
            "default_left": true,
            "missing_type": "None",
            "internal_value": 0.00485263,
            "internal_weight": 452,
            "internal_count": 452,
            "left_child": {
              "split_index": 7,
              "split_feature": 0,
              "split_gain": 0.17029200494289398,
              "threshold": 0.6825000000000001,
              "decision_type": "<=",
              "default_left": true,
              "missing_type": "None",
              "internal_value": 0.00566222,
              "internal_weight": 350,
              "internal_count": 350,
              "left_child": {
                "leaf_index": 2,
                "leaf_value": 0.006070364431156101,
                "leaf_weight": 267,
                "leaf_count": 267
              },
              "right_child": {
                "leaf_index": 8,
                "leaf_value": 0.004237339728018817,
                "leaf_weight": 83,
                "leaf_count": 83
              }
            },
            "right_child": {
              "leaf_index": 6,
              "leaf_value": 0.0020191588967617673,
              "leaf_weight": 102,
              "leaf_count": 102
            }
          }
        }
      }
    },
    {
      "tree_index": 17,
      "num_leaves": 11,
      "num_cat": 0,
      "shrinkage": 0.03,
      "tree_structure": {
        "split_index": 0,
        "split_feature": 4,
        "split_gain": 15.776200294494629,
        "threshold": 3521.0000000000005,
        "decision_type": "<=",
        "default_left": true,
        "missing_type": "None",
        "internal_value": -4.6587699999999994e-05,
        "internal_weight": 1603,
        "internal_count": 1603,
        "left_child": {
          "split_index": 1,
          "split_feature": 4,
          "split_gain": 6.655129909515381,
          "threshold": -3520.9999999999995,
          "decision_type": "<=",
          "default_left": true,
          "missing_type": "None",
          "internal_value": -0.001886,
          "internal_weight": 1160,
          "internal_count": 1160,
          "left_child": {
            "split_index": 5,
            "split_feature": 1,
            "split_gain": 1.2282500267028809,
            "threshold": 0.25500000000000006,
            "decision_type": "<=",
            "default_left": true,
            "missing_type": "None",
            "internal_value": -0.00471609,
            "internal_weight": 453,
            "internal_count": 453,
            "left_child": {
              "leaf_index": 0,
              "leaf_value": -0.0016196681914152577,
              "leaf_weight": 94,
              "leaf_count": 94
            },
            "right_child": {
              "split_index": 7,
              "split_feature": 0,
              "split_gain": 0.14119400084018707,
              "threshold": 0.31750000000000006,
              "decision_type": "<=",
              "default_left": true,
              "missing_type": "None",
              "internal_value": -0.00551339,
              "internal_weight": 359,
              "internal_count": 359,
              "left_child": {
                "leaf_index": 6,
                "leaf_value": -0.004183136746287346,
                "leaf_weight": 83,
                "leaf_count": 83
              },
              "right_child": {
                "leaf_index": 8,
                "leaf_value": -0.005880452026780561,
                "leaf_weight": 276,
                "leaf_count": 276
              }
            }
          },
          "right_child": {
            "split_index": 2,
            "split_feature": 0,
            "split_gain": 7.607150077819824,
            "threshold": 0.43250000000000005,
            "decision_type": "<=",
            "default_left": true,
            "missing_type": "None",
            "internal_value": -6.446530000000001e-05,
            "internal_weight": 707,
            "internal_count": 707,
            "left_child": {
              "split_index": 3,
              "split_feature": 1,
              "split_gain": 2.231920003890991,
              "threshold": 0.4050000000000001,
              "decision_type": "<=",
              "default_left": true,
              "missing_type": "None",
              "internal_value": 0.00402267,
              "internal_weight": 258,
              "internal_count": 258,
              "left_child": {
                "leaf_index": 2,
                "leaf_value": 0.0004107431164293578,
                "leaf_weight": 97,
                "leaf_count": 97
              },
              "right_child": {
                "leaf_index": 4,
                "leaf_value": 0.006167053346253611,
                "leaf_weight": 161,
                "leaf_count": 161
              }
            },
            "right_child": {
              "split_index": 4,
              "split_feature": 0,
              "split_gain": 1.62336003780365,
              "threshold": 0.5725000000000001,
              "decision_type": "<=",
              "default_left": true,
              "missing_type": "None",
              "internal_value": -0.0024204,
              "internal_weight": 449,
              "internal_count": 449,
              "left_child": {
                "leaf_index": 3,
                "leaf_value": -0.00023956692057686883,
                "leaf_weight": 183,
                "leaf_count": 183
              },
              "right_child": {
                "leaf_index": 5,
                "leaf_value": -0.00390775849681292,
                "leaf_weight": 266,
                "leaf_count": 266
              }
            }
          }
        },
        "right_child": {
          "split_index": 6,
          "split_feature": 0,
          "split_gain": 1.0331799983978271,
          "threshold": 0.7975000000000002,
          "decision_type": "<=",
          "default_left": true,
          "missing_type": "None",
          "internal_value": 0.00475675,
          "internal_weight": 443,
          "internal_count": 443,
          "left_child": {
            "split_index": 8,
            "split_feature": 0,
            "split_gain": 0.0957133024930954,
            "threshold": 0.6625000000000002,
            "decision_type": "<=",
            "default_left": true,
            "missing_type": "None",
            "internal_value": 0.00550781,
            "internal_weight": 349,
            "internal_count": 349,
            "left_child": {
              "leaf_index": 1,
              "leaf_value": 0.006403276900882306,
              "leaf_weight": 113,
              "leaf_count": 113
            },
            "right_child": {
              "split_index": 9,
